<?xml version="1.0"?>
<opencv_storage>
<stage4>
  <maxWeakCount>6</maxWeakCount>
  <stageThreshold>-4.9759927392005920e-01</stageThreshold>
  <weakClassifiers>
    <_>
      <internalNodes>
        0 -1 60403 1.3320360332727432e-02</internalNodes>
      <leafValues>
        -3.3085501194000244e-01 9.6078431606292725e-01</leafValues></_>
    <_>
      <internalNodes>
        0 -1 13369 -2.5297056883573532e-02</internalNodes>
      <leafValues>
        9.0186959505081177e-01 -1.8235133588314056e-01</leafValues></_>
    <_>
      <internalNodes>
        0 -1 106802 -6.6061329562216997e-04</internalNodes>
      <leafValues>
        -9.3217515945434570e-01 2.6145181059837341e-01</leafValues></_>
    <_>
      <internalNodes>
        0 -1 5062 -4.3727317824959755e-03</internalNodes>
      <leafValues>
        -7.5454759597778320e-01 2.0592561364173889e-01</leafValues></_>
    <_>
      <internalNodes>
        0 -1 156822 -1.1270420625805855e-02</internalNodes>
      <leafValues>
        8.3864557743072510e-01 -2.4158783257007599e-01</leafValues></_>
    <_>
      <internalNodes>
        0 -1 162026 3.9163092151284218e-03</internalNodes>
      <leafValues>
        -2.1018251776695251e-01 8.8162475824356079e-01</leafValues></_></weakClassifiers></stage4>
</opencv_storage>
